<?xml version="1.0"?>
<opencv_storage>
<cascade>
  <stageType>BOOST</stageType>
  <featureType>HAAR</featureType>
  <height>24</height>
  <width>24</width>
  <stageParams>
    <boostType>GAB</boostType>
    <minHitRate>9.9500000476837158e-01</minHitRate>
    <maxFalseAlarm>5.0000000000000000e-01</maxFalseAlarm>
    <weightTrimRate>9.4999998807907104e-01</weightTrimRate>
    <maxDepth>1</maxDepth>
    <maxWeakCount>100</maxWeakCount></stageParams>
  <featureParams>
    <maxCatCount>0</maxCatCount>
    <featSize>1</featSize>
    <mode>BASIC</mode></featureParams>
  <stageNum>13</stageNum>
  <stages>
    <!-- stage 0 -->
    <_>
      <maxWeakCount>2</maxWeakCount>
      <stageThreshold>-4.4963786005973816e-01</stageThreshold>
      <weakClassifiers>
        <_>
          <internalNodes>
            0 -1 5 2.1683394908905029e-01</internalNodes>
          <leafValues>
            -9.7600001096725464e-01 6.9999998807907104e-01</leafValues></_>
        <_>
          <internalNodes>
            0 -1 23 -1.5327565371990204e-01</internalNodes>
          <leafValues>
            5.2636218070983887e-01 -1.</leafValues></_></weakClassifiers></_>
    <!-- stage 1 -->
    <_>
      <maxWeakCount>3</maxWeakCount>
      <stageThreshold>-1.7564126253128052e+00</stageThreshold>
      <weakClassifiers>
        <_>
          <internalNodes>
            0 -1 26 5.4724268615245819e-02</internalNodes>
          <leafValues>
            -9.7973656654357910e-01 5.0537633895874023e-01</leafValues></_>
        <_>
          <internalNodes>
            0 -1 16 -4.7889415174722672e-02</internalNodes>
          <leafValues>
            1.7608684301376343e-01 -9.6260952949523926e-01</leafValues></_>
        <_>
          <internalNodes>
            0 -1 27 -6.7916698753833771e-03</internalNodes>
          <leafValues>
            3.1190606951713562e-01 -9.5276290178298950e-01</leafValues></_></weakClassifiers></_>
    <!-- stage 2 -->
    <_>
      <maxWeakCount>4</maxWeakCount>
      <stageThreshold>-2.2832763195037842e+00</stageThreshold>
      <weakClassifiers>
        <_>
          <internalNodes>
            0 -1 33 8.4968037903308868e-02</internalNodes>
          <leafValues>
            -9.5266270637512207e-01 6.9696968793869019e-01</leafValues></_>
        <_>
          <internalNodes>
            0 -1 36 -1.3272991776466370e-01</internalNodes>
          <leafValues>
            4.5062464475631714e-01 -8.7150967121124268e-01</leafValues></_>
        <_>
          <internalNodes>
            0 -1 34 -1.5462564304471016e-02</internalNodes>
          <leafValues>
            4.6854335069656372e-01 -8.1110441684722900e-01</leafValues></_>
        <_>
          <internalNodes>
            0 -1 20 2.9269393999129534e-03</internalNodes>
          <leafValues>
            -1. 3.5200035572052002e-01</leafValues></_></weakClassifiers></_>
    <!-- stage 3 -->
    <_>
      <maxWeakCount>4</maxWeakCount>
      <stageThreshold>-1.5867772102355957e+00</stageThreshold>
      <weakClassifiers>
        <_>
          <internalNodes>
            0 -1 37 -6.4427152276039124e-02</internalNodes>
          <leafValues>
            7.0967739820480347e-01 -9.4695478677749634e-01</leafValues></_>
        <_>
          <internalNodes>
            0 -1 21 6.1416059732437134e-02</internalNodes>
          <leafValues>
            -8.6054736375808716e-01 4.4357734918594360e-01</leafValues></_>
        <_>
          <internalNodes>
            0 -1 14 -1.5147769451141357e-01</internalNodes>
          <leafValues>
            9.3629902601242065e-01 -5.6414592266082764e-01</leafValues></_>
        <_>
          <internalNodes>
            0 -1 30 1.0576620697975159e-01</internalNodes>
          <leafValues>
            -6.6147017478942871e-01 7.8487080335617065e-01</leafValues></_></weakClassifiers></_>
    <!-- stage 4 -->
    <_>
      <maxWeakCount>3</maxWeakCount>
      <stageThreshold>-1.6284042596817017e+00</stageThreshold>
      <weakClassifiers>
        <_>
          <internalNodes>
            0 -1 25 5.6393109261989594e-02</internalNodes>
          <leafValues>
            -9.7095435857772827e-01 1.3793103396892548e-01</leafValues></_>
        <_>
          <internalNodes>
            0 -1 10 8.0753505229949951e-02</internalNodes>
          <leafValues>
            -8.2695484161376953e-01 5.0687074661254883e-01</leafValues></_>
        <_>
          <internalNodes>
            0 -1 32 -7.4049830436706543e-04</internalNodes>
          <leafValues>
            3.3674088120460510e-01 -9.3938040733337402e-01</leafValues></_></weakClassifiers></_>
    <!-- stage 5 -->
    <_>
      <maxWeakCount>3</maxWeakCount>
      <stageThreshold>-1.5944730043411255e+00</stageThreshold>
      <weakClassifiers>
        <_>
          <internalNodes>
            0 -1 6 2.9392734169960022e-01</internalNodes>
          <leafValues>
            -9.4394391775131226e-01 2.8395062685012817e-01</leafValues></_>
        <_>
          <internalNodes>
            0 -1 35 1.2753393501043320e-02</internalNodes>
          <leafValues>
            -8.3224809169769287e-01 4.9679470062255859e-01</leafValues></_>
        <_>
          <internalNodes>
            0 -1 4 -2.7989111840724945e-02</internalNodes>
          <leafValues>
            1.8171904981136322e-01 -1.</leafValues></_></weakClassifiers></_>
    <!-- stage 6 -->
    <_>
      <maxWeakCount>3</maxWeakCount>
      <stageThreshold>-1.5149083137512207e+00</stageThreshold>
      <weakClassifiers>
        <_>
          <internalNodes>
            0 -1 18 -7.6120153069496155e-02</internalNodes>
          <leafValues>
            2.0547945797443390e-01 -9.2850047349929810e-01</leafValues></_>
        <_>
          <internalNodes>
            0 -1 17 8.2308650016784668e-02</internalNodes>
          <leafValues>
            -8.5082691907882690e-01 3.6798760294914246e-01</leafValues></_>
        <_>
          <internalNodes>
            0 -1 8 3.7405494367703795e-05</internalNodes>
          <leafValues>
            2.8633654117584229e-01 -9.5439541339874268e-01</leafValues></_></weakClassifiers></_>
    <!-- stage 7 -->
    <_>
      <maxWeakCount>3</maxWeakCount>
      <stageThreshold>-1.5573236942291260e+00</stageThreshold>
      <weakClassifiers>
        <_>
          <internalNodes>
            0 -1 22 -1.1635543406009674e-01</internalNodes>
          <leafValues>
            5.7142859697341919e-01 -9.0944123268127441e-01</leafValues></_>
        <_>
          <internalNodes>
            0 -1 24 -1.0253598913550377e-02</internalNodes>
          <leafValues>
            3.9918810129165649e-01 -8.5285919904708862e-01</leafValues></_>
        <_>
          <internalNodes>
            0 -1 0 2.5350327632622793e-05</internalNodes>
          <leafValues>
            2.0497676730155945e-01 -1.</leafValues></_></weakClassifiers></_>
    <!-- stage 8 -->
    <_>
      <maxWeakCount>3</maxWeakCount>
      <stageThreshold>-1.5552157163619995e+00</stageThreshold>
      <weakClassifiers>
        <_>
          <internalNodes>
            0 -1 7 3.8899384438991547e-02</internalNodes>
          <leafValues>
            -9.5228213071823120e-01 -1.7241379246115685e-02</leafValues></_>
        <_>
          <internalNodes>
            0 -1 15 -1.3953763246536255e-01</internalNodes>
          <leafValues>
            2.7137568593025208e-01 -8.0506336688995361e-01</leafValues></_>
        <_>
          <internalNodes>
            0 -1 9 1.8104352056980133e-02</internalNodes>
          <leafValues>
            -1. 2.0212976634502411e-01</leafValues></_></weakClassifiers></_>
    <!-- stage 9 -->
    <_>
      <maxWeakCount>4</maxWeakCount>
      <stageThreshold>-2.2782249450683594e+00</stageThreshold>
      <weakClassifiers>
        <_>
          <internalNodes>
            0 -1 3 8.8929995894432068e-02</internalNodes>
          <leafValues>
            -9.6424818038940430e-01 -2.3255813866853714e-02</leafValues></_>
        <_>
          <internalNodes>
            0 -1 12 3.1100007891654968e-01</internalNodes>
          <leafValues>
            -7.7993708848953247e-01 4.6785274147987366e-01</leafValues></_>
        <_>
          <internalNodes>
            0 -1 31 -8.4848394617438316e-03</internalNodes>
          <leafValues>
            4.4962587952613831e-01 -7.9942214488983154e-01</leafValues></_>
        <_>
          <internalNodes>
            0 -1 1 2.6007032021880150e-02</internalNodes>
          <leafValues>
            -1. 2.6538246870040894e-01</leafValues></_></weakClassifiers></_>
    <!-- stage 10 -->
    <_>
      <maxWeakCount>3</maxWeakCount>
      <stageThreshold>-1.6007363796234131e+00</stageThreshold>
      <weakClassifiers>
        <_>
          <internalNodes>
            0 -1 19 -9.0622879564762115e-02</internalNodes>
          <leafValues>
            2.2891566157341003e-01 -9.4182544946670532e-01</leafValues></_>
        <_>
          <internalNodes>
            0 -1 2 1.5050140023231506e-01</internalNodes>
          <leafValues>
            -8.5216242074966431e-01 2.9413172602653503e-01</leafValues></_>
        <_>
          <internalNodes>
            0 -1 11 1.2892892118543386e-04</internalNodes>
          <leafValues>
            1.9325149059295654e-01 -9.7341513633728027e-01</leafValues></_></weakClassifiers></_>
    <!-- stage 11 -->
    <_>
      <maxWeakCount>3</maxWeakCount>
      <stageThreshold>-1.4806991815567017e+00</stageThreshold>
      <weakClassifiers>
        <_>
          <internalNodes>
            0 -1 13 5.3729392588138580e-02</internalNodes>
          <leafValues>
            -9.5076924562454224e-01 6.6666670143604279e-02</leafValues></_>
        <_>
          <internalNodes>
            0 -1 18 -7.6432630419731140e-02</internalNodes>
          <leafValues>
            5.9131133556365967e-01 -7.6621633768081665e-01</leafValues></_>
        <_>
          <internalNodes>
            0 -1 11 -2.8020149329677224e-04</internalNodes>
          <leafValues>
            -1. 2.3628637194633484e-01</leafValues></_></weakClassifiers></_>
    <!-- stage 12 -->
    <_>
      <maxWeakCount>3</maxWeakCount>
      <stageThreshold>-1.4898667335510254e+00</stageThreshold>
      <weakClassifiers>
        <_>
          <internalNodes>
            0 -1 13 5.3533367812633514e-02</internalNodes>
          <leafValues>
            -9.5051544904708862e-01 1.8181817606091499e-02</leafValues></_>
        <_>
          <internalNodes>
            0 -1 29 3.2187510281801224e-02</internalNodes>
          <leafValues>
            -8.2532125711441040e-01 3.6449566483497620e-01</leafValues></_>
        <_>
          <internalNodes>
            0 -1 28 -6.4104178454726934e-04</internalNodes>
          <leafValues>
            2.8597003221511841e-01 -8.9653879404067993e-01</leafValues></_></weakClassifiers></_></stages>
  <features>
    <_>
      <rects>
        <_>
          0 1 3 9 -1.</_>
        <_>
          0 4 3 3 3.</_></rects>
      <tilted>0</tilted></_>
    <_>
      <rects>
        <_>
          0 1 18 10 -1.</_>
        <_>
          6 1 6 10 3.</_></rects>
      <tilted>0</tilted></_>
    <_>
      <rects>
        <_>
          0 2 20 11 -1.</_>
        <_>
          10 2 10 11 2.</_></rects>
      <tilted>0</tilted></_>
    <_>
      <rects>
        <_>
          0 3 14 5 -1.</_>
        <_>
          7 3 7 5 2.</_></rects>
      <tilted>0</tilted></_>
    <_>
      <rects>
        <_>
          0 3 16 8 -1.</_>
        <_>
          0 3 8 4 2.</_>
        <_>
          8 7 8 4 2.</_></rects>
      <tilted>0</tilted></_>
    <_>
      <rects>
        <_>
          0 4 10 19 -1.</_>
        <_>
          5 4 5 19 2.</_></rects>
      <tilted>0</tilted></_>
    <_>
      <rects>
        <_>
          0 15 21 8 -1.</_>
        <_>
          7 15 7 8 3.</_></rects>
      <tilted>0</tilted></_>
    <_>
      <rects>
        <_>
          0 16 10 2 -1.</_>
        <_>
          5 16 5 2 2.</_></rects>
      <tilted>0</tilted></_>
    <_>
      <rects>
        <_>
          1 3 1 8 -1.</_>
        <_>
          1 7 1 4 2.</_></rects>
      <tilted>0</tilted></_>
    <_>
      <rects>
        <_>
          1 4 12 20 -1.</_>
        <_>
          1 4 6 10 2.</_>
        <_>
          7 14 6 10 2.</_></rects>
      <tilted>0</tilted></_>
    <_>
      <rects>
        <_>
          1 9 9 9 -1.</_>
        <_>
          4 9 3 9 3.</_></rects>
      <tilted>0</tilted></_>
    <_>
      <rects>
        <_>
          1 23 4 1 -1.</_>
        <_>
          3 23 2 1 2.</_></rects>
      <tilted>0</tilted></_>
    <_>
      <rects>
        <_>
          3 0 18 24 -1.</_>
        <_>
          3 8 18 8 3.</_></rects>
      <tilted>0</tilted></_>
    <_>
      <rects>
        <_>
          3 2 16 3 -1.</_>
        <_>
          11 2 8 3 2.</_></rects>
      <tilted>0</tilted></_>
    <_>
      <rects>
        <_>
          3 12 18 4 -1.</_>
        <_>
          12 12 9 4 2.</_></rects>
      <tilted>0</tilted></_>
    <_>
      <rects>
        <_>
          3 12 17 12 -1.</_>
        <_>
          3 18 17 6 2.</_></rects>
      <tilted>0</tilted></_>
    <_>
      <rects>
        <_>
          4 0 12 12 -1.</_>
        <_>
          4 0 6 6 2.</_>
        <_>
          10 6 6 6 2.</_></rects>
      <tilted>0</tilted></_>
    <_>
      <rects>
        <_>
          4 0 10 8 -1.</_>
        <_>
          4 4 10 4 2.</_></rects>
      <tilted>0</tilted></_>
    <_>
      <rects>
        <_>
          4 13 14 8 -1.</_>
        <_>
          4 17 14 4 2.</_></rects>
      <tilted>0</tilted></_>
    <_>
      <rects>
        <_>
          5 10 16 8 -1.</_>
        <_>
          5 10 8 4 2.</_>
        <_>
          13 14 8 4 2.</_></rects>
      <tilted>0</tilted></_>
    <_>
      <rects>
        <_>
          5 22 18 2 -1.</_>
        <_>
          5 22 9 1 2.</_>
        <_>
          14 23 9 1 2.</_></rects>
      <tilted>0</tilted></_>
    <_>
      <rects>
        <_>
          6 0 10 6 -1.</_>
        <_>
          6 3 10 3 2.</_></rects>
      <tilted>0</tilted></_>
    <_>
      <rects>
        <_>
          6 9 14 8 -1.</_>
        <_>
          6 9 7 4 2.</_>
        <_>
          13 13 7 4 2.</_></rects>
      <tilted>0</tilted></_>
    <_>
      <rects>
        <_>
          6 15 18 8 -1.</_>
        <_>
          15 15 9 8 2.</_></rects>
      <tilted>0</tilted></_>
    <_>
      <rects>
        <_>
          6 22 10 2 -1.</_>
        <_>
          6 23 10 1 2.</_></rects>
      <tilted>0</tilted></_>
    <_>
      <rects>
        <_>
          7 0 8 6 -1.</_>
        <_>
          7 3 8 3 2.</_></rects>
      <tilted>0</tilted></_>
    <_>
      <rects>
        <_>
          7 1 8 9 -1.</_>
        <_>
          7 4 8 3 3.</_></rects>
      <tilted>0</tilted></_>
    <_>
      <rects>
        <_>
          7 6 8 4 -1.</_>
        <_>
          7 8 8 2 2.</_></rects>
      <tilted>0</tilted></_>
    <_>
      <rects>
        <_>
          8 18 4 2 -1.</_>
        <_>
          10 18 2 2 2.</_></rects>
      <tilted>0</tilted></_>
    <_>
      <rects>
        <_>
          10 0 8 4 -1.</_>
        <_>
          10 2 8 2 2.</_></rects>
      <tilted>0</tilted></_>
    <_>
      <rects>
        <_>
          11 1 12 17 -1.</_>
        <_>
          15 1 4 17 3.</_></rects>
      <tilted>0</tilted></_>
    <_>
      <rects>
        <_>
          11 6 9 5 -1.</_>
        <_>
          14 6 3 5 3.</_></rects>
      <tilted>0</tilted></_>
    <_>
      <rects>
        <_>
          12 5 6 1 -1.</_>
        <_>
          15 5 3 1 2.</_></rects>
      <tilted>0</tilted></_>
    <_>
      <rects>
        <_>
          12 8 12 5 -1.</_>
        <_>
          16 8 4 5 3.</_></rects>
      <tilted>0</tilted></_>
    <_>
      <rects>
        <_>
          13 8 6 8 -1.</_>
        <_>
          13 8 3 4 2.</_>
        <_>
          16 12 3 4 2.</_></rects>
      <tilted>0</tilted></_>
    <_>
      <rects>
        <_>
          15 7 1 12 -1.</_>
        <_>
          15 11 1 4 3.</_></rects>
      <tilted>0</tilted></_>
    <_>
      <rects>
        <_>
          16 1 8 15 -1.</_>
        <_>
          20 1 4 15 2.</_></rects>
      <tilted>0</tilted></_>
    <_>
      <rects>
        <_>
          18 1 4 13 -1.</_>
        <_>
          20 1 2 13 2.</_></rects>
      <tilted>0</tilted></_></features></cascade>
</opencv_storage>
